{
  "input_nodes": 5,
  "hidden_nodes": 8,
  "output_nodes": 2,
  "weights_ih": {
    "rows": 8,
    "cols": 5,
    "data": [
      [-0.23796523056623986, -0.8057659076220887, 0.8899961791382065, -0.5782704681168465, -0.5317809581805859],
      [-0.9738159055718065, -0.769671166490526, 0.1420463435932553, 0.49939756163071136, -0.2529782183821778],
      [0.34575445596402954, -0.09068309540542874, 0.4711571674974566, -0.12413723001829835, -0.931364591598026],
      [0.9235307116876403, -0.7734618466346594, 0.08996519566786487, 0.04504014807529755, 0.6106347445506],
      [-0.9828936365882877, -0.4524480010749694, 0.308668110188254, -0.585979739747279, 0.16678166961949348],
      [0.07358316406673282, -0.3637735123123922, -0.944005996751665, 0.18559521578094262, -0.6859811014916333],
      [-0.6074048153222962, -0.7815220341787872, 0.2725314007466695, 0.30541065149997637, -0.4662472590280591],
      [0.2684794078533277, -0.4873133529315741, 0.9129238343775521, 0.25335743014639167, -0.9362215133242731]
    ]
  },
  "weights_ho": {
    "rows": 2,
    "cols": 8,
    "data": [
      [-0.24275117305587735, -0.9895636052181445, 0.14267109705279024, 0.9968820629271171, -0.4622113322378181, -0.4665665635538865, -0.462732489843241, -0.003946423544962219],
      [0.9124309564397799, -0.1626799399048302, 0.9140840572335858, -0.6075058765107801, 0.6082532507383296, -0.29488691161038005, 0.5041533327395222, 0.0011611235658577357]
    ]
  },
  "bias_h": {
    "rows": 8,
    "cols": 1,
    "data": [
      [-0.506462693672602],
      [0.9970794326296435],
      [-0.840623180460573],
      [-0.5751581511886537],
      [-0.6302745218109607],
      [-0.002251291166715408],
      [0.05796094942518071],
      [-0.7384310656774984]
    ]
  },
  "bias_o": {
    "rows": 2,
    "cols": 1,
    "data": [
      [-0.06667141378906871],
      [-0.22240729116180713]
    ]
  },
  "learning_rate": 0.1,
  "activation_function": {}
}